/*!
 * The following copyright notice may not be removed under any circumstances.
 * 
 * Copyright:
 * © 2006 Founder Corporation, all rights reserved. Portions © 2006 Microsoft
 * Corporation, all rights reserved.
 * 
 * Trademark:
 * Mongolian Baiti is either a registered trademark or a trademark of Microsoft
 * Corporation in the United States and/or other countries.
 * 
 * Manufacturer:
 * Microsoft Corporation
 * 
 * Designer:
 * Founder, Beijing China
 * 
 * Vendor URL:
 * http://www.microsoft.com/typography/fonts/
 * 
 * License information:
 * http://www.microsoft.com/typography/fonts
 */
Cufon.registerFont({"w":1024,"face":{"font-family":"Mongolian Baiti","font-weight":400,"font-stretch":"normal","units-per-em":"2048","panose-1":"3 0 5 0 0 0 0 0 0 0","ascent":"1638","descent":"-410","bbox":"-157.529 -1470 1917 442.155","underline-thickness":"96","underline-position":"-256","unicode-range":"U+0020-U+007E"},"glyphs":{" ":{"w":512,"k":{"Y":76,"W":37,"V":37,"T":37,"A":113}},"!":{"d":"342,-1387v96,0,120,107,108,218r-90,810r-38,0r-88,-810v-19,-117,5,-218,108,-218xm229,-83v0,-66,44,-110,111,-110v65,0,111,45,111,110v0,66,-45,111,-111,111v-66,0,-111,-45,-111,-111","w":682},"\"":{"d":"600,-1387v59,0,102,45,100,107v-3,177,-51,320,-76,477r-48,0r-76,-413v-11,-94,13,-171,100,-171xm231,-1387v85,0,112,76,95,173r-73,411r-43,0r-72,-399v-17,-99,2,-185,93,-185","w":836},"#":{"d":"115,28r93,-455r-171,0r0,-82r187,0r69,-343r-256,0r0,-80r275,0r91,-455r83,0r-91,455r337,0r97,-455r83,0r-95,455r170,0r0,80r-185,0r-70,343r255,0r0,82r-272,0r-93,455r-81,0r91,-455r-339,0r-95,455r-83,0xm308,-509r339,0r72,-343r-341,0"},"$":{"d":"462,28v-141,-7,-248,-34,-354,-79r0,-283r44,0v17,191,116,279,310,297r0,-584v-150,-93,-250,-175,-300,-246v-35,-51,-53,-113,-53,-185v0,-208,157,-299,353,-326r0,-92r64,0r0,92v163,13,142,22,330,88r0,299r-39,0v-14,-194,-99,-305,-291,-320r0,508v168,117,274,206,323,260v67,74,96,223,45,337v-60,133,-189,218,-368,234r0,128r-64,0r0,-128xm462,-1310v-143,10,-230,116,-187,264v28,95,105,146,187,201r0,-465xm526,-37v137,-22,236,-107,236,-249v0,-44,-13,-86,-40,-125v-27,-40,-92,-96,-196,-167r0,541"},"%":{"d":"1392,-1387r-988,1443r-89,0r988,-1443r89,0xm1150,-580v58,-75,200,-127,312,-64v105,59,173,176,173,336v0,169,-61,293,-177,340v-286,117,-467,-208,-373,-497v15,-46,40,-83,65,-115xm1443,-542v-41,-101,-151,-96,-188,-6v-44,106,-47,380,-2,476v45,96,138,94,187,-3v45,-89,41,-375,3,-467xm166,-1294v58,-75,199,-127,311,-64v105,59,173,176,173,336v0,169,-61,293,-177,340v-286,117,-467,-208,-373,-497v15,-46,41,-83,66,-115xm458,-1256v-41,-101,-151,-96,-188,-6v-44,106,-47,380,-2,476v45,96,137,94,186,-3v45,-89,42,-375,4,-467","w":1706},"&":{"d":"1138,-722v0,-63,-35,-105,-93,-114r0,-37r420,0r0,37v-58,5,-101,18,-129,39v-28,21,-70,85,-129,190v-59,106,-125,205,-198,297v84,88,146,187,300,187v102,0,162,-60,185,-148r37,27v-40,162,-136,275,-310,275v-171,0,-255,-101,-351,-195v-141,119,-228,195,-436,195v-166,0,-283,-69,-334,-183v-57,-128,-18,-243,62,-356v57,-81,166,-164,327,-250v-57,-119,-115,-284,-54,-434v57,-140,242,-240,429,-176v92,31,162,106,162,225v0,203,-178,276,-329,361v83,147,170,284,265,414v117,-141,176,-259,176,-354xm755,-1314v-146,0,-205,146,-159,288v19,60,39,113,67,179v165,-79,247,-179,247,-301v0,-98,-57,-166,-155,-166xm818,-222r-112,-156v-78,-108,-123,-195,-183,-313v-161,93,-241,203,-241,332v0,122,62,206,149,247v101,48,232,10,298,-42v24,-19,55,-40,89,-68","w":1593},"'":{"d":"178,-1387v60,-1,108,46,104,107v-11,155,-55,325,-80,477r-44,0r-71,-399v-18,-98,0,-185,91,-185","w":369},"(":{"d":"636,-1380v-260,134,-359,471,-359,863v0,325,48,597,195,771v43,50,96,100,164,147r0,37v-230,-114,-379,-285,-474,-520v-130,-324,-93,-697,75,-974v103,-170,235,-293,399,-366r0,42","w":682},")":{"d":"46,401v261,-141,359,-463,359,-864v0,-324,-47,-598,-195,-770v-43,-50,-96,-100,-164,-147r0,-42v232,112,379,285,474,520v131,325,94,697,-75,974v-104,171,-236,293,-399,366r0,-37","w":682},"*":{"d":"145,-1176v1,-70,90,-89,145,-51v67,46,134,147,204,183v1,-82,-62,-215,-62,-272v0,-62,31,-106,85,-106v67,0,90,83,69,158v-19,70,-42,144,-51,220v93,-49,133,-163,233,-199v88,-31,153,83,81,138v-64,48,-217,61,-295,98v92,54,270,38,316,131v40,79,-60,143,-134,91v-71,-50,-122,-139,-201,-187v-3,73,63,242,59,285v-4,51,-28,95,-75,95v-75,0,-102,-70,-81,-148v21,-79,49,-137,56,-232v-92,53,-138,162,-234,202v-76,32,-149,-55,-95,-122v61,-76,212,-66,306,-115v-100,-61,-327,-36,-326,-169"},"+":{"d":"535,-141r0,-499r-498,0r0,-82r498,0r0,-497r80,0r0,497r500,0r0,82r-500,0r0,499r-80,0","w":1155},",":{"d":"239,-200v141,0,202,170,151,310v-44,120,-149,188,-280,231r0,-44v114,-42,216,-114,216,-257v0,-21,-13,-52,-35,-36v-21,10,-44,23,-74,24v-65,0,-110,-43,-107,-109v3,-74,54,-119,129,-119","w":512},"-":{"d":"83,-535r517,0r0,151r-517,0r0,-151","w":682},"\u00ad":{"d":"83,-535r517,0r0,151r-517,0r0,-151","w":682},".":{"d":"145,-83v0,-67,44,-111,111,-111v67,0,111,45,111,111v0,66,-45,111,-111,111v-66,0,-111,-45,-111,-111","w":512},"\/":{"d":"574,-1422r-491,1450r-80,0r491,-1450r80,0","w":569},"0":{"d":"110,-388v-60,-208,-43,-507,34,-681v54,-122,129,-238,250,-289v165,-69,286,-2,402,133v202,235,204,834,13,1074v-68,87,-159,175,-303,175v-140,0,-233,-91,-298,-190v-41,-63,-74,-136,-98,-222xm296,-996v-43,304,-46,725,102,906v57,69,167,61,223,2v126,-133,134,-381,134,-647v0,-227,-26,-424,-124,-535v-71,-80,-195,-60,-255,36v-36,58,-65,136,-80,238"},"1":{"d":"240,-1223r330,-161r33,0r2,1238v5,104,52,104,169,109r0,37r-510,0r0,-37v78,-3,141,-2,163,-55v7,-18,11,-67,11,-147r0,-732v-5,-142,8,-184,-36,-237v-47,-31,-84,-10,-147,16","k":{"1":76}},"2":{"d":"611,-151v149,4,245,-12,291,-110r37,0r-95,261r-800,0r0,-37v194,-179,363,-340,497,-526v97,-135,144,-260,144,-373v0,-137,-69,-228,-165,-273v-33,-15,-67,-22,-103,-22v-166,0,-251,100,-297,230r-37,0v35,-221,143,-383,387,-383v179,0,298,94,356,220v51,111,31,230,-18,342v-80,185,-294,403,-442,562v-51,55,-88,90,-109,109r354,0"},"3":{"d":"621,-1018v-4,-140,-86,-230,-225,-230v-104,0,-190,55,-259,166r-33,-16v70,-159,163,-286,367,-286v146,0,244,71,293,171v15,33,23,68,23,104v0,99,-62,201,-186,306v150,57,253,166,253,354v0,235,-135,372,-316,438v-113,42,-307,54,-407,1v-30,-16,-48,-37,-48,-73v0,-46,46,-83,102,-73v94,16,150,98,268,93v120,-5,198,-75,233,-165v59,-150,-17,-319,-124,-378v-67,-37,-144,-71,-251,-67r0,-30v158,-28,315,-128,310,-315"},"4":{"d":"953,-500r0,142r-182,0r0,358r-165,0r0,-358r-574,0r0,-128r629,-898r110,0r0,884r182,0xm606,-500r0,-673r-476,673r476,0"},"5":{"d":"98,-109v-6,-68,102,-91,154,-49v45,36,126,82,191,79v137,-7,228,-82,269,-185v93,-235,-90,-443,-272,-513v-73,-28,-171,-47,-297,-52r260,-527r486,0r-78,170r-408,0r-89,182v177,26,316,93,420,197v133,134,174,332,89,518v-81,178,-253,313,-492,313v-121,0,-224,-28,-233,-133"},"6":{"d":"918,-1384r0,37v-268,22,-410,167,-516,353v-40,70,-66,148,-89,237v136,-89,271,-137,420,-69v127,57,212,187,212,370v0,212,-111,362,-257,439v-86,46,-205,58,-300,18v-191,-81,-300,-271,-300,-533v0,-395,241,-664,514,-798v95,-47,191,-58,316,-54xm506,-769v-97,0,-138,46,-210,85v-41,244,-9,441,98,577v46,59,143,96,232,54v167,-80,171,-425,74,-589v-40,-67,-98,-127,-194,-127"},"7":{"d":"401,-1193v-165,-4,-237,64,-296,169r-29,-11r130,-321r727,0r0,38r-452,1346r-112,0r405,-1221r-373,0"},"8":{"d":"152,-182v-100,-230,92,-399,241,-501v-108,-89,-177,-159,-208,-212v-52,-88,-63,-194,-19,-289v56,-119,173,-200,346,-200v164,0,282,73,338,183v47,93,30,178,-28,264v-36,53,-111,115,-225,186v141,116,309,216,309,429v0,169,-105,268,-234,318v-93,36,-223,37,-317,1v-91,-35,-166,-95,-203,-179xm514,-1326v-168,0,-282,145,-204,300v50,99,159,164,240,236v122,-120,177,-143,184,-312v6,-139,-83,-224,-220,-224xm527,-30v140,0,238,-74,238,-209v0,-47,-13,-90,-38,-129v-46,-70,-142,-162,-287,-277v-93,81,-163,169,-163,331v0,168,85,284,250,284"},"9":{"d":"108,28r0,-37v233,-9,354,-121,458,-265v71,-98,119,-205,146,-321v-154,92,-263,139,-418,72v-130,-56,-213,-188,-213,-375v0,-212,105,-366,250,-444v104,-57,247,-55,349,4v192,111,304,394,236,694v-66,293,-247,494,-490,614v-87,43,-189,63,-318,58xm482,-1319v-310,0,-260,586,-78,702v105,67,256,6,324,-52v43,-243,7,-439,-99,-574v-33,-42,-79,-76,-147,-76"},":":{"d":"178,-833v0,-66,45,-111,111,-111v66,0,111,45,111,111v0,66,-45,111,-111,111v-66,0,-111,-45,-111,-111xm176,-83v0,-67,44,-112,111,-112v67,0,112,46,112,112v0,67,-46,111,-112,111v-66,0,-111,-45,-111,-111","w":569},";":{"d":"171,-835v0,-66,44,-110,111,-110v67,0,111,44,111,110v0,66,-45,111,-111,111v-66,0,-111,-45,-111,-111xm271,-200v141,0,202,170,151,310v-44,120,-149,188,-280,231r0,-44v114,-42,216,-114,216,-257v0,-21,-13,-52,-35,-36v-21,10,-44,23,-74,24v-65,0,-110,-43,-107,-109v3,-74,54,-119,129,-119","w":569},"<":{"d":"37,-706r1076,-466r0,87r-926,402r926,406r0,90r-1076,-470r0,-49","w":1155},"=":{"d":"37,-883r1079,0r0,82r-1079,0r0,-82xm37,-557r1079,0r0,82r-1079,0r0,-82","w":1155},">":{"d":"1113,-653r-1076,466r0,-86r927,-402r-927,-406r0,-91r1076,470r0,49","w":1155},"?":{"d":"203,-943v-113,-6,-135,-166,-86,-264v55,-109,171,-180,335,-180v174,0,298,72,350,193v78,180,-35,348,-131,453v-97,107,-155,186,-178,233v-21,45,-34,107,-39,188r-41,0v6,-278,143,-399,211,-611v61,-192,-22,-400,-215,-400v-100,0,-176,41,-187,130v6,62,54,113,60,173v5,45,-35,87,-79,85xm329,-84v0,-67,44,-109,111,-112v63,-2,115,49,112,112v-3,67,-46,111,-112,111v-66,0,-111,-45,-111,-111","w":909},"@":{"d":"1046,-964v97,1,153,53,172,138r33,-110r157,-22r-170,582v-22,80,-40,131,-40,197v0,77,85,89,156,58v284,-123,451,-618,260,-950v-105,-183,-288,-300,-565,-300v-354,0,-612,207,-743,475v-75,154,-115,312,-115,478v0,479,311,799,783,799v401,0,676,-237,804,-553r58,0v-103,339,-444,620,-867,614v-518,-7,-872,-362,-872,-886v0,-490,295,-835,701,-946v79,-22,161,-32,245,-32v428,1,708,269,714,685v4,248,-132,527,-289,624v-85,53,-171,82,-263,82v-97,1,-152,-45,-153,-137v0,-37,6,-86,18,-147v-100,120,-179,197,-237,232v-59,35,-112,53,-157,53v-121,0,-181,-104,-181,-233v0,-240,177,-505,345,-618v79,-53,146,-83,206,-83xm1182,-773v5,-124,-120,-183,-219,-113v-113,80,-193,220,-251,361v-40,96,-59,174,-59,232v0,80,40,142,115,142v118,0,181,-90,256,-179v89,-105,153,-306,158,-443","w":1886},"A":{"d":"921,-37v72,-6,138,-14,138,-83v0,-124,-84,-227,-122,-334r-525,0v-37,98,-112,226,-126,332v5,75,79,75,157,85r0,37r-427,0r0,-37v108,-20,120,-37,164,-111v19,-32,38,-74,59,-123r477,-1116r35,0r472,1128v53,116,80,217,233,222r0,37r-535,0r0,-37xm909,-528r-230,-548r-236,548r466,0","w":1479,"k":{"Y":188,"W":164,"V":264,"T":227," ":113}},"B":{"d":"1171,-1106v69,201,-54,370,-225,414v174,39,308,121,308,321v0,173,-109,275,-240,329v-73,30,-187,42,-340,42r-640,0r0,-37v149,4,196,-32,196,-203r0,-876v6,-175,-44,-206,-196,-203r0,-37r586,0v238,-1,384,36,492,152v27,29,47,62,59,98xm422,-746v105,20,330,16,408,-17v115,-48,195,-205,128,-349v-54,-116,-182,-176,-356,-177v-68,0,-128,7,-180,22r0,521xm1022,-354v0,-283,-302,-335,-600,-300r0,556v77,18,153,27,229,27v211,0,371,-83,371,-283","w":1366},"C":{"d":"1114,-1293v49,-1,74,-48,84,-94r35,0r31,461r-31,0v-69,-218,-180,-389,-453,-389v-349,0,-478,288,-478,660v0,356,157,590,507,598v255,6,337,-138,455,-281r31,20v-114,197,-261,341,-561,349v-461,12,-769,-439,-627,-923v70,-240,243,-415,495,-476v165,-40,310,-19,452,53v29,15,49,23,60,22","w":1366},"D":{"d":"230,-1116v6,-179,-43,-204,-195,-203r0,-37v335,7,795,-27,1014,69v202,89,355,316,352,602v-4,339,-171,542,-431,634v-95,34,-204,51,-329,51r-606,0r0,-37v149,3,195,-29,195,-203r0,-876xm846,-1238v-125,-54,-287,-50,-424,-13r0,1153v358,93,616,-62,710,-326v52,-146,53,-358,0,-503v-53,-145,-150,-252,-286,-311","w":1479},"E":{"d":"236,-1120v6,-181,-37,-200,-194,-199r0,-37r1045,0r0,297r-24,0v-21,-100,-37,-183,-122,-208v-124,-37,-354,-9,-513,-15r0,536v131,-4,294,13,404,-12v82,-19,103,-87,107,-185r37,0r0,472r-37,0v-12,-111,-34,-185,-140,-197v-112,-12,-250,-2,-371,-5r0,447v-4,127,8,152,112,152r230,0v127,2,207,-16,267,-79v48,-50,90,-115,127,-187r40,0r-117,340r-1045,0r0,-37v149,1,194,-30,194,-202r0,-881","w":1251},"F":{"d":"33,-37v152,1,194,-25,194,-203r-2,-954v1,-107,-86,-129,-192,-125r0,-37r1009,0r0,298r-22,0v-32,-116,-70,-198,-188,-216v-120,-18,-279,-5,-413,-8r0,533r247,0v130,5,165,-69,177,-186r37,0r0,459r-37,0v0,-127,-46,-190,-177,-190r-247,0r2,504v0,107,87,129,194,125r0,37r-582,0r0,-37","w":1139,"k":{"A":152,".":164,",":164}},"G":{"d":"1096,-1322v81,36,120,28,124,-65r37,0r35,428r-35,0v-66,-216,-202,-352,-448,-358v-323,-8,-512,286,-507,617v4,311,136,559,380,641v145,49,315,11,421,-53r0,-392v-1,-90,-4,-155,-64,-181v-22,-10,-59,-17,-114,-17r0,-38r525,0r0,38v-133,-12,-152,69,-152,198r0,415v-134,72,-275,120,-476,120v-262,0,-462,-83,-597,-252v-128,-160,-184,-344,-139,-575v50,-254,209,-446,418,-538v140,-61,357,-72,506,-18","w":1479},"H":{"d":"616,-1319v-151,-2,-195,32,-195,204r0,388r630,0r-2,-466v1,-107,-86,-130,-192,-126r0,-37r581,0r-1,37v-86,-4,-160,11,-183,72v-8,22,-11,66,-11,132r2,953v-1,107,85,129,192,125r0,37r-580,0r0,-37v150,2,194,-26,194,-203r0,-413r-630,0r2,491v0,107,86,129,193,125r0,37r-581,0r0,-37v152,1,194,-25,194,-203r-2,-953v1,-107,-85,-131,-192,-126r0,-37r581,0r0,37","w":1479},"I":{"d":"632,-1319v-152,-2,-195,26,-195,203r2,954v0,107,86,129,193,125r0,37r-581,0r0,-37v152,1,194,-25,194,-203r-2,-954v1,-107,-86,-129,-192,-125r0,-37r581,0r0,37","w":682},"J":{"d":"325,-40v64,0,74,-75,74,-150r-2,-1004v0,-107,-87,-129,-193,-125r0,-37r581,0r0,37v-152,-2,-194,26,-194,203r0,663v2,251,-69,395,-239,465v-129,53,-307,5,-310,-134v-2,-76,53,-115,130,-102v52,22,68,71,94,130v16,35,34,54,59,54","w":797},"K":{"d":"916,-1191v52,-61,29,-134,-65,-128r-31,0r0,-37r498,0r0,37v-144,8,-216,76,-296,156r-410,411r500,497v133,128,204,194,384,218r0,37r-645,0r0,-37v78,5,133,-39,101,-105v-13,-27,-36,-45,-64,-72r-468,-463r2,515v0,106,85,129,190,125r0,37r-578,0r0,-37v152,1,194,-25,194,-203r-2,-952v1,-107,-85,-132,-192,-127r0,-37r578,0r0,37v-148,-1,-192,32,-192,203r0,415v172,-150,347,-316,496,-490","w":1479},"L":{"d":"236,-1116v6,-179,-43,-204,-195,-203r0,-37r614,0r0,37v-102,0,-177,11,-211,73v-11,21,-16,72,-16,153r0,852v1,70,2,132,53,145v81,21,405,15,474,-13v117,-47,166,-148,219,-266r33,7r-116,368r-1050,0r0,-37v149,2,195,-28,195,-204r0,-875","w":1251,"k":{"Y":205,"W":152,"V":188,"T":188," ":76}},"M":{"d":"1202,-37v148,2,192,-26,192,-198r0,-906r-523,1141r-33,0r-524,-1141r0,906v-6,176,40,199,192,198r0,37r-472,0r0,-37v148,2,192,-26,192,-198r0,-886v6,-151,-50,-200,-192,-198r0,-37r384,0r492,1061r484,-1061r384,0r0,37v-148,-2,-192,26,-192,198r0,886v-5,175,40,199,192,198r0,37r-576,0r0,-37","w":1821},"N":{"d":"240,-1178v-71,-81,-117,-140,-267,-141r0,-37r368,0r829,1017r0,-782v5,-175,-41,-199,-192,-198r0,-37r472,0r0,37v-148,-2,-192,26,-192,198r0,1143r-36,0r-894,-1092r0,835v-6,176,40,199,192,198r0,37r-472,0r0,-37v148,2,192,-26,192,-198r0,-943","w":1479},"O":{"d":"72,-683v0,-385,294,-704,677,-704v355,0,651,327,651,701v0,389,-294,717,-667,717v-381,0,-661,-316,-661,-714xm922,-1270v-104,-58,-271,-60,-375,0v-172,98,-246,311,-246,583v0,276,74,495,245,599v98,61,251,63,360,12v186,-88,265,-299,265,-583v-1,-287,-68,-510,-249,-611","w":1479},"P":{"d":"228,-1116v7,-178,-42,-205,-194,-203r0,-37v307,14,696,-49,881,89v83,61,152,148,152,286v0,249,-165,374,-419,374v-67,0,-143,-9,-228,-28r0,395v-6,179,43,205,195,203r0,37r-581,0r0,-37v150,2,194,-28,194,-203r0,-876xm551,-1275v-46,0,-87,8,-131,19r0,564v92,15,183,36,262,-2v92,-44,157,-134,157,-267v0,-191,-102,-314,-288,-314","w":1139,"k":{"A":188,".":227,",":227," ":76}},"Q":{"d":"1401,-677v2,345,-223,614,-499,692v119,203,240,324,490,354r0,32v-347,-19,-642,-198,-835,-386v-206,-81,-332,-182,-419,-361v-46,-93,-66,-206,-66,-335v0,-385,299,-706,674,-706v272,0,521,203,606,429v32,84,49,178,49,281xm912,-1268v-104,-57,-259,-55,-362,0v-177,95,-249,310,-249,587v0,275,75,493,246,597v102,62,264,62,371,6v176,-93,254,-302,254,-574v0,-292,-77,-515,-260,-616","w":1479},"R":{"d":"1093,-1007v0,215,-150,303,-334,347r280,389v117,152,150,205,345,234r0,37r-362,0r-459,-634r-83,2r-59,-2r0,394v-6,179,43,205,195,203r0,37r-581,0r0,-37v149,2,195,-28,195,-203r0,-876v6,-179,-43,-204,-195,-203r0,-37v256,6,624,-25,812,32v137,41,246,143,246,317xm696,-1259v-82,-33,-183,-21,-275,-2r0,564v251,10,447,-66,447,-297v0,-138,-71,-224,-172,-265","w":1366,"k":{"Y":113,"W":113,"V":164,"T":123}},"S":{"d":"754,-1334v80,38,134,34,148,-53r37,0r0,469r-37,0v-25,-208,-110,-328,-284,-376v-168,-46,-331,33,-331,195v0,139,110,184,205,242v178,107,406,175,504,359v44,82,45,208,2,296v-66,137,-199,226,-396,233v-155,6,-235,-60,-363,-77v-45,3,-52,26,-61,77r-37,0r0,-465r37,0v33,236,148,387,403,387v155,0,270,-75,270,-222v0,-149,-107,-195,-205,-256v-171,-107,-389,-178,-486,-357v-43,-78,-44,-200,-2,-285v61,-128,183,-220,367,-220v71,0,148,15,229,53","w":1139},"T":{"d":"339,-37v148,2,192,-26,192,-198r0,-1036v-127,4,-275,-17,-349,43v-49,40,-70,104,-82,190r-38,0r0,-318r1123,0r0,318r-23,0v-17,-149,-83,-233,-248,-233r-191,0r0,1036v-5,176,39,199,191,198r0,37r-575,0r0,-37","w":1251,"k":{"O":37,"A":164,";":113,":":102,".":152,"-":188,",":152," ":37}},"U":{"d":"1172,-1116v6,-179,-43,-204,-195,-203r0,-37r480,0r0,37v-145,-4,-195,40,-195,211r0,550v12,405,-148,580,-522,590v-223,6,-362,-65,-450,-178v-81,-103,-82,-254,-82,-440r0,-530v1,-125,-22,-208,-146,-203r-51,0r0,-37r586,0r0,37r-52,0v-124,-5,-145,80,-145,203r0,591v-3,277,73,475,352,471v185,-3,321,-77,381,-206v28,-60,39,-163,39,-307r0,-549","w":1479},"V":{"d":"1180,-1223v0,-62,-64,-87,-144,-96r0,-37r418,0r0,37v-119,18,-163,97,-203,196r-473,1154r-37,0r-508,-1169v-47,-104,-45,-118,-116,-158v-23,-13,-57,-20,-99,-23r0,-37r554,0r0,37v-77,11,-150,13,-150,91v0,34,15,86,46,156r345,795r320,-785v31,-78,47,-132,47,-161","w":1479,"k":{"A":264,";":152,":":152,".":264,"-":188,",":264," ":37}},"W":{"d":"1662,-1234v-1,-70,-74,-84,-150,-85r0,-37r405,0r0,37v-83,-1,-118,36,-149,90v-13,23,-32,79,-63,167r-378,1093r-40,0r-309,-867r-307,867r-36,0r-403,-1126v-31,-85,-50,-135,-57,-149v-28,-51,-68,-75,-148,-75r0,-37r502,0r0,37v-100,-7,-157,42,-123,139v9,26,19,62,34,104r267,761r225,-647v-44,-109,-65,-244,-142,-318v-28,-27,-65,-39,-119,-39r0,-37r528,0r0,37v-84,-5,-145,13,-144,89v0,34,15,93,45,178r260,737r258,-747v29,-84,44,-141,44,-172","w":1933,"k":{"A":227,";":76,":":76,".":188,"-":113,",":188," ":37}},"X":{"d":"1080,-1202v33,-87,-45,-125,-137,-117r0,-37r481,0r0,37v-88,5,-145,34,-192,80v-124,121,-277,341,-396,488r291,434v62,92,114,171,179,228v37,33,88,49,149,52r0,37r-582,0r0,-37v91,1,152,-31,129,-117v-14,-29,-41,-66,-59,-94r-230,-348r-321,412v-15,24,-27,35,-26,70v3,65,62,73,130,77r0,37r-481,0r0,-37v91,-7,148,-47,206,-91v38,-29,81,-75,128,-135r320,-404r-267,-391v-73,-106,-135,-175,-185,-208v-51,-33,-110,-51,-175,-53r0,-37r627,0r0,37v-70,6,-139,13,-139,77v0,25,16,61,48,108r208,311r276,-350v8,-11,14,-21,18,-29","w":1479},"Y":{"d":"1113,-1222v0,-73,-55,-98,-137,-97r0,-37r473,0r0,37v-163,4,-227,124,-294,229r-327,515r0,340v-5,175,40,198,192,198r0,37r-576,0r0,-37v148,2,192,-26,192,-198r0,-321r-428,-650v-46,-64,-92,-103,-189,-113r0,-37r580,0r0,37v-81,-3,-156,15,-156,88v0,24,20,67,61,130r283,437r266,-418v40,-63,60,-109,60,-140","w":1479,"k":{"A":227,";":188,":":188,".":264,"-":227,",":264," ":76}},"Z":{"d":"462,-1275v-201,3,-251,63,-277,258r-38,0r28,-339r1003,0r-891,1274r556,0v215,-9,251,-89,318,-283r33,6r-64,359r-1104,0r0,-37r870,-1238r-434,0","w":1251},"[":{"d":"608,406r-440,0r0,-1793r440,0r0,79r-290,0r0,1636r290,0r0,78","w":682},"\\":{"d":"83,-1422r490,1450r-80,0r-490,-1450r80,0","w":569},"]":{"d":"75,-1387r440,0r0,1794r-440,0r0,-79r290,0r0,-1636r-290,0r0,-79","w":682},"^":{"d":"498,-1384r425,717r-92,0r-350,-586r-350,586r-94,0r431,-717r30,0","w":961},"_":{"d":"1042,442r-1059,0r0,-84r1059,0r0,84"},"`":{"d":"118,-1390r223,0r106,345r-35,0","w":682},"a":{"d":"691,18v-77,0,-110,-56,-108,-150v-94,73,-153,115,-177,126v-35,17,-74,25,-115,25v-162,-2,-250,-144,-207,-308v22,-83,89,-129,161,-172v69,-41,181,-89,338,-146v4,-156,-21,-277,-170,-275v-99,2,-147,60,-136,170v6,57,-32,96,-85,96v-86,2,-104,-112,-62,-180v56,-91,164,-147,313,-147v142,0,253,33,287,138v47,148,7,456,23,648v4,49,50,61,83,34v22,-17,48,-45,69,-65r0,56v-75,100,-147,150,-214,150xm275,-368v-74,100,-20,271,108,271v51,0,117,-33,200,-100r0,-349v-51,20,-93,37,-125,51v-81,33,-145,77,-183,127","w":909},"b":{"d":"953,-493v9,280,-212,519,-472,521v-105,0,-216,-39,-331,-116r0,-949v0,-103,-4,-166,-8,-192v-10,-70,-71,-72,-133,-46r-14,-35r275,-112r45,0r0,664v124,-163,240,-236,419,-154v138,63,213,214,219,419xm523,-801v-104,2,-149,52,-208,107r0,548v94,87,194,139,306,76v105,-59,159,-195,159,-366v-1,-163,-59,-282,-162,-340v-31,-16,-62,-25,-95,-25"},"c":{"d":"530,-128v168,0,226,-109,283,-234r29,14v-35,166,-120,294,-258,352v-157,66,-318,-16,-396,-107v-99,-116,-157,-367,-83,-551v65,-161,190,-289,402,-289v135,0,231,61,285,143v45,68,23,162,-69,162v-78,0,-106,-43,-112,-118v-6,-78,-53,-120,-137,-120v-280,1,-289,436,-162,620v46,68,113,128,218,128","w":909},"d":{"d":"711,-1167v5,-65,3,-124,-71,-124v-18,0,-41,5,-69,16r-13,-35r273,-112r45,0r0,1059v5,155,-10,189,32,246v34,25,61,13,110,-3r11,35r-272,113r-46,0r0,-131v-77,78,-140,131,-269,131v-183,0,-291,-124,-344,-268v-117,-321,104,-707,413,-704v80,0,147,26,200,77r0,-300xm711,-173r0,-472v-16,-131,-79,-237,-212,-237v-135,0,-199,109,-229,226v-57,221,10,472,161,547v110,54,196,25,280,-64"},"e":{"d":"552,-135v152,0,217,-85,268,-219r31,20v-27,151,-112,270,-235,330v-89,44,-204,40,-294,-2v-149,-72,-246,-221,-246,-440v0,-234,94,-393,256,-465v92,-41,214,-47,308,-7v127,54,209,169,211,347r-633,0v1,198,76,340,206,407v40,20,83,29,128,29xm218,-629r424,0v-4,-121,-31,-164,-96,-212v-81,-59,-198,-25,-251,33v-39,44,-71,102,-77,179","w":909},"f":{"d":"866,-1318v63,73,-19,192,-106,134v-69,-47,-85,-164,-200,-164v-70,0,-105,40,-124,101v-9,28,-15,214,-14,331r236,0r0,72r-236,0r0,602v-8,184,50,214,210,206r0,36r-547,0r0,-36v136,2,172,-44,172,-206r0,-602r-178,0r0,-72r178,0v-13,-262,79,-427,275,-488v132,-41,269,11,334,86","w":682,"k":{"f":37}},"g":{"d":"244,-8v-61,-39,-115,-64,-90,-148v24,-80,88,-119,155,-178v-135,-55,-222,-239,-147,-406v54,-120,168,-203,338,-203v88,0,164,21,227,64r245,3v22,8,28,86,-10,86v-46,0,-110,0,-160,1v59,73,73,204,30,303v-64,148,-267,230,-474,171v-44,38,-75,62,-75,115v0,51,47,49,101,56v69,9,223,11,290,13v152,4,245,36,286,139v46,115,-2,203,-91,288v-130,124,-327,174,-547,131v-88,-17,-170,-52,-224,-101v-83,-76,2,-175,44,-226v5,-6,39,-42,102,-108xm509,-344v247,9,201,-444,59,-527v-25,-15,-53,-24,-85,-24v-127,0,-174,105,-174,240v0,163,47,306,200,311xm299,0v-63,69,-95,127,-95,176v0,94,116,119,212,136v186,32,395,-2,465,-118v32,-53,29,-127,-29,-144v-143,-43,-394,-21,-553,-50"},"h":{"d":"562,-822v-115,4,-164,66,-229,131r2,561v1,84,62,93,146,94r0,36r-454,0r0,-36v77,2,122,-13,133,-78v5,-23,7,-54,7,-93r0,-829v0,-103,-4,-167,-8,-193v-11,-70,-65,-73,-132,-46r-14,-35r274,-112r46,0r0,670v85,-79,148,-191,306,-191v313,0,223,429,236,736v3,78,-5,139,55,158v18,7,46,11,81,13r0,36r-450,0r0,-36v86,3,141,-11,145,-88v2,-22,3,-50,3,-83r0,-363v3,-135,-9,-257,-147,-252"},"i":{"d":"195,-1321v0,-61,41,-101,102,-101v61,0,101,40,101,101v0,61,-40,102,-101,102v-61,0,-102,-41,-102,-102xm380,-943r0,736v-2,117,14,178,139,171r0,36r-445,0r0,-36v120,3,140,-42,140,-171r0,-353v-1,-90,1,-154,-14,-212v-14,-54,-75,-41,-126,-23r-14,-36r276,-112r44,0","w":569},"j":{"d":"194,-1320v0,-61,41,-103,102,-103v62,0,103,41,103,103v0,61,-42,102,-103,102v-61,0,-102,-41,-102,-102xm125,363v102,-15,92,-142,92,-269r0,-652v-1,-92,1,-157,-14,-215v-14,-53,-76,-40,-126,-22r-14,-36r276,-112r43,0r0,922v-3,272,-101,463,-360,463v-91,0,-171,-24,-179,-101v-9,-79,99,-108,155,-60v25,21,93,87,127,82","w":569},"k":{"d":"591,-36v89,-2,71,-57,25,-115r-281,-356r0,301v2,75,-1,135,48,157v14,7,47,12,100,13r0,36r-466,0r0,-36v83,1,134,-11,146,-80v4,-22,6,-50,6,-85r-1,-963v-3,-78,-6,-128,-71,-128v-13,0,-34,6,-63,17r-17,-35r272,-112r46,0r0,909r284,-257v21,-23,43,-30,43,-63v0,-34,-29,-50,-71,-51r0,-32r398,0r0,32v-125,0,-189,45,-256,107r-235,217r235,297v89,111,108,136,171,191v33,28,69,37,132,36r0,36r-445,0r0,-36"},"l":{"d":"379,-1422r0,1215v-1,122,15,178,148,171r0,36r-449,0r0,-36v80,1,123,-16,131,-85v3,-22,4,-51,4,-86r-1,-957v-4,-76,-6,-127,-68,-127v-18,0,-40,5,-66,16r-17,-35r273,-112r45,0","w":569},"m":{"d":"571,-826v-106,0,-181,68,-235,128r0,491v-1,124,12,179,149,171r0,36r-453,0r0,-36v81,1,129,-13,134,-84v13,-171,9,-401,2,-576v-3,-66,-3,-116,-69,-114v-19,0,-41,5,-67,15r-15,-36r276,-112r43,0r0,195v117,-113,105,-126,215,-174v156,-68,313,25,334,174v69,-79,127,-132,174,-157v47,-25,96,-38,146,-38v185,0,241,145,241,342r0,394v0,79,-1,142,59,161v19,6,45,10,79,10r0,36r-452,0r0,-36v119,-4,148,-25,148,-171r0,-394v0,-131,-26,-225,-152,-222v-116,3,-167,68,-238,128r4,565v2,83,63,92,147,94r0,36r-463,0r0,-36v87,0,140,-10,146,-87v2,-22,3,-50,3,-84r0,-394v-1,-130,-34,-225,-156,-225","w":1593},"n":{"d":"27,-36v119,10,139,-57,139,-171r0,-340v0,-109,-5,-175,-8,-201v-9,-69,-70,-72,-131,-47r-15,-36r276,-112r43,0r0,194v107,-129,210,-194,307,-194v186,0,237,147,237,345r0,391v1,88,3,152,72,167v18,3,41,4,68,4r0,36r-453,0r0,-36v86,3,139,-12,144,-88v8,-141,4,-309,4,-458v0,-143,-19,-238,-142,-238v-79,0,-158,43,-237,130r0,483v-5,144,24,170,149,171r0,36r-453,0r0,-36"},"o":{"d":"332,-901v104,-55,251,-55,358,-4v152,73,263,215,263,430v0,225,-115,381,-270,461v-105,54,-254,56,-359,2v-148,-76,-255,-224,-255,-437v0,-218,113,-373,263,-452xm544,-43v240,0,249,-317,204,-541v-30,-150,-100,-294,-267,-294v-292,0,-255,495,-147,688v43,76,106,147,210,147"},"p":{"d":"152,-646v-3,-88,7,-164,-81,-161v-15,0,-35,5,-61,14r-12,-32r282,-114r38,0r0,214v70,-108,132,-218,293,-218v181,0,277,129,319,277v78,275,-32,556,-221,652v-52,26,-109,42,-173,42v-105,0,-163,-29,-218,-81r2,357v9,87,51,95,153,97r0,37r-480,0r0,-37v128,-1,159,-25,159,-181r0,-866xm318,-666r0,342v-2,151,8,187,78,248v53,46,168,58,240,16v196,-113,172,-599,-4,-708v-60,-37,-143,-37,-196,2v-38,28,-81,68,-118,100"},"q":{"d":"730,-879v39,-19,77,-40,111,-64r34,0r0,1178v-2,122,16,173,149,166r0,37r-462,0r0,-37v78,3,133,-7,141,-75v17,-142,3,-329,7,-485v-99,109,-148,187,-300,187v-170,0,-263,-123,-313,-261v-42,-118,-37,-283,9,-397v69,-175,204,-313,433,-313v77,0,140,21,191,64xm514,-113v100,0,144,-44,196,-109r0,-430v-1,-137,-64,-221,-202,-221v-198,0,-272,171,-272,383v0,212,80,377,278,377"},"r":{"d":"332,-214v-5,120,38,182,160,178r0,36r-469,0r0,-36v81,1,130,-14,138,-82v16,-131,6,-300,6,-443v0,-108,-3,-171,-7,-190v-14,-68,-76,-69,-137,-44r-10,-36r277,-112r42,0r0,206v77,-137,156,-206,236,-206v72,0,123,41,127,111v3,63,-64,115,-126,82v-34,-18,-68,-47,-105,-58v-69,21,-97,95,-132,155r0,439","w":682,"k":{"g":37,".":113,"-":41,",":82}},"s":{"d":"543,-911v47,11,63,5,80,-32r33,0r0,312r-33,0v-38,-139,-82,-253,-249,-253v-101,0,-188,70,-148,171v50,124,250,162,358,243v74,55,141,105,141,220v0,139,-89,218,-194,258v-118,46,-243,-20,-358,-20v-15,0,-27,9,-36,26r-33,0r0,-327r33,0v34,154,111,275,284,282v111,4,193,-92,146,-199v-77,-176,-405,-171,-458,-370v-51,-194,72,-343,269,-343v55,0,115,20,165,32","w":797},"t":{"d":"20,-879v133,-61,225,-185,279,-338r31,0r0,301r214,0r0,70r-214,0r0,594v2,83,13,151,91,151v53,0,95,-36,112,-81r39,0v-41,102,-101,197,-231,197v-133,0,-176,-87,-176,-245r0,-616r-145,0r0,-33","w":569},"u":{"d":"475,-95v109,-4,160,-69,227,-130r0,-519v6,-105,-44,-137,-147,-135r0,-37r312,0r0,555v5,154,-11,188,31,244v32,25,67,13,109,-3r14,35r-274,113r-45,0r0,-194v-79,85,-139,139,-180,161v-83,45,-194,46,-264,-11v-83,-67,-100,-152,-101,-313r0,-409v0,-77,-15,-125,-77,-136v-21,-4,-49,-5,-78,-5r0,-37r321,0r0,613v0,126,32,212,152,208"},"v":{"d":"811,-830v0,-49,-44,-47,-105,-49r0,-37r299,0r0,37v-86,4,-109,57,-135,121r-325,786r-41,0r-327,-773v-30,-77,-64,-126,-160,-134r0,-37r431,0r0,37v-63,-5,-108,14,-108,70v0,23,7,51,21,83r213,506r214,-525v15,-38,23,-66,23,-85","k":{".":133,",":133}},"w":{"d":"1247,-742v35,-83,28,-139,-76,-137r0,-37r289,0r0,37v-59,9,-101,49,-128,118r-306,789r-41,0r-229,-585r-267,585r-37,0r-294,-770v-27,-76,-60,-122,-145,-137r0,-37r384,0r0,37v-59,6,-86,12,-86,62v0,20,6,45,17,75r196,527r197,-429r-52,-135v-22,-64,-60,-99,-145,-100r0,-37r436,0r0,37v-70,5,-119,11,-122,77v0,15,3,28,8,41r208,526","w":1479,"k":{".":133,",":133}},"x":{"d":"243,-101v3,40,41,65,90,65r0,36r-299,0r0,-36v63,-9,89,-41,124,-86r259,-342r-174,-252v-65,-81,-86,-160,-216,-163r0,-37r431,0r0,37v-70,-8,-88,49,-58,96r117,183v37,-54,147,-190,147,-229v0,-34,-29,-51,-72,-50r0,-37r310,0r0,37v-77,6,-110,43,-153,91v-19,22,-41,50,-66,84r-125,167r228,328v46,64,73,108,120,147v27,22,49,24,93,26r0,36r-432,0r0,-36v44,0,88,-17,89,-57v-25,-77,-147,-231,-198,-312r-147,196v-45,60,-68,96,-68,108"},"y":{"d":"59,330v-3,-69,64,-107,135,-87r108,31v82,-12,108,-80,137,-151r65,-159r-329,-691v-42,-65,-64,-138,-163,-152r0,-37r427,0r0,37v-63,-5,-110,16,-111,68v0,26,11,62,33,108r223,462r205,-506v11,-28,17,-55,17,-81v0,-48,-41,-50,-92,-51r0,-37r298,0r0,37v-93,5,-105,64,-135,138r-373,914v-47,113,-119,205,-226,251v-95,42,-215,6,-219,-94","k":{".":133,",":133}},"z":{"d":"860,-281r0,281r-819,0r0,-36r608,-810r-300,0v-89,0,-148,2,-176,60v-16,33,-28,73,-31,124r-40,0r0,-254r774,0r0,37r-614,812r334,0v104,1,172,-10,203,-79v9,-21,20,-66,27,-135r34,0","w":909},"{":{"d":"615,175v0,141,105,199,226,232r0,35v-169,-24,-286,-120,-348,-252v-65,-139,18,-303,18,-449v0,-128,-106,-191,-228,-211r0,-41v123,-20,228,-81,228,-211v0,-146,-83,-309,-18,-448v62,-132,180,-227,348,-252r0,35v-123,31,-226,90,-226,231v0,138,79,287,27,420v-46,120,-150,197,-277,243v127,47,228,129,276,249v53,133,-26,281,-26,419","w":983},"|":{"d":"244,-1422r0,1864r-83,0r0,-1864r83,0","w":410},"}":{"d":"403,-1156v0,-141,-105,-199,-226,-231r0,-35v168,24,288,120,349,252v64,139,-19,302,-19,448v0,130,105,191,228,211r0,41v-123,20,-228,82,-228,211v0,145,83,308,19,447v-61,132,-181,229,-349,254r0,-35v130,-30,226,-101,226,-232v0,-138,-79,-287,-27,-421v47,-120,149,-196,277,-242v-128,-47,-228,-128,-277,-248v-54,-133,27,-282,27,-420","w":983},"~":{"d":"762,-506v152,51,270,-24,280,-169r45,0v-2,194,-143,320,-344,262v-123,-36,-376,-170,-493,-170v-113,0,-164,72,-186,183r-44,0v6,-187,126,-318,324,-264v130,35,292,115,418,158","w":1108},"\u00a0":{"w":512,"k":{"Y":76,"W":37,"V":37,"T":37,"A":113}}}});
